svm_type c_svc
kernel_type rbf
gamma 0.142857
nr_class 2
total_sv 294
rho -0.401515
label 1 -1
nr_sv 174 120
SV
1 1:0 2:0 3:0 4:0 5:1 6:0 7:0 
0.5707812953763942 1:23 2:5 3:2 4:2 5:14 6:1 7:1 
1 1:13 2:1 3:1 4:1 5:1 6:1 7:1 
1 1:9 2:0 3:0 4:0 5:2 6:2 7:1 
0.7564027304112501 1:12 2:2 3:2 4:1 5:4 6:1 7:1 
1 1:9 2:0 3:0 4:0 5:4 6:1 7:1 
1 1:2 2:1 3:1 4:0 5:3 6:1 7:1 
0.4436722022643502 1:12 2:1 3:1 4:1 5:2 6:1 7:1 
0.105220088103392 1:17 2:2 3:1 4:1 5:5 6:3 7:3 
0.4775454246792742 1:21 2:1 3:1 4:1 5:9 6:5 7:2 
0.4549579201674674 1:26 2:1 3:1 4:1 5:9 6:6 7:2 
0.3231969623021568 1:21 2:4 3:2 4:2 5:9 6:4 7:1 
0.6986240352873792 1:9 2:1 3:0 4:0 5:2 6:1 7:1 
0.05054772250454834 1:14 2:2 3:1 4:0 5:6 6:6 7:2 
1 1:4 2:1 3:1 4:0 5:2 6:1 7:1 
0.5845969659874841 1:32 2:5 3:2 4:1 5:11 6:6 7:1 
1 1:3 2:2 3:1 4:0 5:3 6:3 7:2 
0.8466464633964381 1:10 2:1 3:1 4:0 5:9 6:1 7:1 
1 1:4 2:0 3:0 4:0 5:2 6:2 7:1 
1 1:3 2:1 3:0 4:0 5:4 6:4 7:1 
1 1:4 2:3 3:1 4:1 5:4 6:3 7:1 
0.07473453438019537 1:9 2:0 3:0 4:0 5:4 6:2 7:1 
0.5966858922991678 1:61 2:2 3:1 4:1 5:18 6:3 7:2 
1 1:3 2:3 3:1 4:1 5:4 6:1 7:1 
1 1:3 2:2 3:1 4:0 5:4 6:1 7:1 
1 1:3 2:1 3:0 4:0 5:2 6:1 7:1 
1 1:4 2:1 3:1 4:1 5:2 6:1 7:1 
1 1:5 2:1 3:1 4:1 5:2 6:1 7:1 
1 1:5 2:3 3:1 4:1 5:5 6:1 7:1 
0.06842160315184877 1:9 2:0 3:0 4:0 5:5 6:1 7:1 
0.3465970274870636 1:13 2:2 3:1 4:1 5:4 6:4 7:1 
0.0133131552299624 1:29 2:2 3:1 4:0 5:3 6:2 7:1 
0.5889932096310753 1:28 2:1 3:0 4:0 5:17 6:1 7:1 
0.263684235603855 1:26 2:2 3:1 4:1 5:3 6:3 7:2 
0.5528382438240624 1:49 2:4 3:4 4:1 5:8 6:2 7:2 
1 1:8 2:4 3:1 4:1 5:4 6:3 7:1 
0.2699153910312602 1:21 2:2 3:1 4:1 5:3 6:1 7:1 
0.5416204640674336 1:49 2:1 3:1 4:1 5:6 6:1 7:1 
0.01362735202068894 1:36 2:1 3:1 4:1 5:8 6:3 7:2 
0.4910698439722669 1:39 2:3 3:1 4:1 5:2 6:1 7:1 
0.3544754918279592 1:30 2:0 3:0 4:0 5:2 6:2 7:1 
0.09502837593138672 1:30 2:1 3:1 4:0 5:5 6:2 7:1 
0.4579013131455727 1:46 2:3 3:1 4:1 5:11 6:2 7:1 
0.2030938949659183 1:17 2:1 3:1 4:0 5:5 6:1 7:1 
0.02979072852925231 1:26 2:1 3:0 4:0 5:5 6:1 7:1 
0.5555980864514102 1:41 2:1 3:1 4:0 5:8 6:5 7:1 
0.3032136324715784 1:47 2:2 3:1 4:1 5:9 6:2 7:1 
0.3018085464839589 1:26 2:0 3:0 4:0 5:3 6:1 7:1 
0.2907908135361973 1:27 2:3 3:1 4:1 5:7 6:2 7:1 
0.05128577687605894 1:16 2:0 3:0 4:0 5:5 6:1 7:1 
0.6639158881621042 1:5 2:1 3:0 4:0 5:4 6:3 7:3 
0.2678760782164739 1:15 2:2 3:1 4:1 5:9 6:1 7:1 
0.05609309620861881 1:25 2:0 3:0 4:0 5:5 6:1 7:1 
1 1:7 2:2 3:1 4:1 5:1 6:1 7:1 
1 1:2 2:1 3:0 4:0 5:2 6:1 7:1 
0.2926291423543201 1:30 2:2 3:2 4:1 5:7 6:3 7:1 
0.3073209622137323 1:12 2:0 3:0 4:0 5:3 6:3 7:3 
0.07011719486400463 1:36 2:1 3:1 4:1 5:3 6:2 7:1 
1 1:11 2:0 3:0 4:0 5:3 6:1 7:1 
0.2948966684008719 1:7 2:1 3:1 4:1 5:3 6:2 7:2 
0.2505973026383341 1:10 2:2 3:2 4:1 5:7 6:6 7:1 
0.3725459604597146 1:29 2:1 3:0 4:0 5:7 6:1 7:1 
0.5305063160755378 1:31 2:6 3:3 4:1 5:7 6:2 7:2 
0.4303118614763532 1:28 2:6 3:1 4:1 5:4 6:2 7:2 
0.2644599886100541 1:15 2:1 3:1 4:0 5:10 6:1 7:1 
0.4730311546552922 1:27 2:6 3:2 4:1 5:5 6:4 7:4 
0.5850454618582235 1:34 2:6 3:3 4:1 5:15 6:4 7:4 
0.6240868551368367 1:15 2:6 3:1 4:1 5:6 6:5 7:2 
1 1:6 2:1 3:1 4:1 5:9 6:3 7:1 
0.4589147351973884 1:20 2:6 3:1 4:1 5:3 6:3 7:2 
1 1:4 2:1 3:1 4:1 5:8 6:3 7:2 
0.4046987821032085 1:21 2:6 3:1 4:1 5:6 6:1 7:1 
0.1079084203158161 1:22 2:2 3:2 4:1 5:5 6:1 7:1 
0.4445629747275348 1:21 2:6 3:2 4:1 5:10 6:2 7:1 
1 1:0 2:0 3:0 4:0 5:0 6:0 7:0 
0.3593368391122283 1:34 2:1 3:1 4:1 5:4 6:1 7:1 
1 1:4 2:1 3:0 4:0 5:2 6:1 7:1 
1 1:3 2:2 3:1 4:0 5:1 6:1 7:0 
0.3005261961897313 1:18 2:1 3:1 4:1 5:10 6:2 7:1 
0.04510426765085702 1:15 2:1 3:1 4:1 5:7 6:3 7:1 
0.4331573436799421 1:17 2:1 3:1 4:1 5:10 6:7 7:1 
0.09295815708148013 1:13 2:1 3:1 4:1 5:2 6:2 7:1 
1 1:1 2:1 3:0 4:0 5:4 6:1 7:1 
1 1:8 2:2 3:2 4:1 5:6 6:3 7:1 
1 1:1 2:3 3:1 4:1 5:3 6:3 7:2 
0.9397527795883497 1:5 2:0 3:0 4:0 5:1 6:1 7:1 
1 1:3 2:1 3:1 4:1 5:6 6:1 7:1 
0.5968275749394334 1:55 2:2 3:1 4:1 5:8 6:2 7:1 
1 1:5 2:1 3:1 4:1 5:3 6:2 7:1 
0.2166612230873222 1:37 2:2 3:1 4:1 5:10 6:3 7:2 
1 1:3 2:4 3:1 4:1 5:3 6:1 7:1 
0.2524337565618262 1:4 2:1 3:1 4:1 5:7 6:1 7:1 
1 1:4 2:1 3:1 4:1 5:3 6:1 7:1 
1 1:0 2:8 3:2 4:1 5:2 6:1 7:1 
1 1:3 2:3 3:1 4:1 5:2 6:1 7:1 
1 1:1 2:2 3:1 4:1 5:1 6:1 7:1 
1 1:2 2:2 3:1 4:1 5:4 6:1 7:1 
1 1:4 2:5 3:1 4:1 5:6 6:2 7:1 
1 1:3 2:4 3:1 4:1 5:6 6:1 7:1 
1 1:5 2:2 3:1 4:1 5:3 6:1 7:1 
0.7049127164062948 1:6 2:3 3:1 4:1 5:17 6:4 7:1 
0.7029546577823369 1:9 2:2 3:1 4:1 5:2 6:2 7:2 
1 1:3 2:0 3:0 4:0 5:2 6:2 7:1 
0.2957689514756769 1:15 2:2 3:1 4:1 5:5 6:1 7:1 
0.5891759567809921 1:11 2:3 3:1 4:1 5:6 6:6 7:1 
0.7471464596979551 1:4 2:1 3:1 4:0 5:4 6:1 7:1 
0.762931357320851 1:4 2:1 3:0 4:0 5:3 6:1 7:1 
0.53948095160887 1:13 2:6 3:1 4:1 5:9 6:5 7:5 
0.1139058127500011 1:28 2:1 3:1 4:1 5:3 6:1 7:1 
0.6011751680097988 1:16 2:4 3:2 4:1 5:16 6:6 7:2 
0.2313943358070008 1:17 2:1 3:1 4:1 5:9 6:3 7:3 
0.2491086405653915 1:16 2:1 3:1 4:0 5:2 6:2 7:2 
0.4429461258950528 1:35 2:4 3:1 4:1 5:7 6:3 7:2 
0.4912316134265517 1:37 2:1 3:1 4:0 5:6 6:5 7:1 
0.1664961932857321 1:30 2:2 3:1 4:0 5:2 6:1 7:1 
0.3403198345592232 1:37 2:1 3:1 4:1 5:2 6:2 7:1 
0.5730165260424551 1:34 2:1 3:1 4:1 5:16 6:4 7:1 
0.4142120069090359 1:21 2:3 3:2 4:1 5:5 6:4 7:4 
0.1838429221264671 1:11 2:1 3:1 4:1 5:8 6:4 7:1 
0.1248344070875608 1:22 2:1 3:1 4:1 5:2 6:2 7:2 
0.5312939343011074 1:12 2:1 3:1 4:1 5:10 6:5 7:5 
0.6616605241428081 1:7 2:1 3:1 4:1 5:5 6:4 7:3 
0.3145130905626976 1:24 2:0 3:0 4:0 5:7 6:2 7:1 
0.3112001364495074 1:24 2:2 3:2 4:1 5:2 6:1 7:1 
0.6819381128524021 1:9 2:3 3:1 4:1 5:7 6:5 7:3 
0.2268834422809253 1:5 2:1 3:1 4:1 5:5 6:2 7:2 
0.5837743370078258 1:31 2:4 3:1 4:1 5:20 6:4 7:1 
0.1435117972186137 1:13 2:1 3:0 4:0 5:8 6:2 7:1 
0.1103649286685373 1:22 2:2 3:1 4:1 5:6 6:4 7:2 
1 1:2 2:1 3:1 4:1 5:2 6:1 7:1 
0.5760039621255664 1:10 2:3 3:1 4:1 5:9 6:2 7:1 
0.6383931940364006 1:6 2:1 3:1 4:1 5:5 6:4 7:1 
0.3192077436217848 1:19 2:5 3:3 4:3 5:13 6:12 7:2 
0.3104013409490963 1:34 2:1 3:1 4:1 5:9 6:2 7:2 
1 1:4 2:2 3:1 4:1 5:3 6:3 7:1 
0.4097806913818758 1:37 2:1 3:1 4:1 5:11 6:4 7:1 
0.03584846973852032 1:17 2:1 3:1 4:1 5:6 6:1 7:1 
0.4229154881421439 1:21 2:0 3:0 4:0 5:3 6:3 7:1 
0.09822856862243366 1:5 2:1 3:0 4:0 5:1 6:1 7:1 
0.7785781859875381 1:15 2:2 3:1 4:1 5:3 6:3 7:2 
0.5273104602569393 1:8 2:1 3:1 4:1 5:1 6:0 7:0 
0.1010884861609772 1:21 2:2 3:1 4:1 5:7 6:1 7:1 
0.1693441187446091 1:34 2:1 3:1 4:1 5:8 6:2 7:1 
0.170752463757088 1:23 2:0 3:0 4:0 5:6 6:1 7:1 
0.5057049032113413 1:15 2:3 3:1 4:1 5:6 6:4 7:3 
0.2353269841728263 1:16 2:2 3:1 4:0 5:6 6:5 7:2 
0.7354758023934201 1:12 2:2 3:2 4:1 5:4 6:2 7:2 
0.1668156969651613 1:5 2:2 3:1 4:1 5:7 6:7 7:1 
0.3715385564468666 1:28 2:2 3:1 4:1 5:7 6:5 7:3 
0.5645933124578968 1:31 2:3 3:3 4:3 5:16 6:2 7:2 
0.3012275060973993 1:32 2:2 3:1 4:1 5:2 6:1 7:1 
0.5968060737561215 1:56 2:4 3:4 4:1 5:19 6:4 7:3 
0.2383838204175026 1:13 2:1 3:1 4:0 5:8 6:6 7:2 
1 1:2 2:4 3:1 4:1 5:7 6:5 7:2 
0.4470768626648574 1:12 2:2 3:1 4:0 5:4 6:1 7:1 
0.4902804919091152 1:18 2:2 3:1 4:1 5:9 6:9 7:3 
0.3422234205866335 1:24 2:2 3:1 4:1 5:11 6:3 7:2 
1 1:6 2:5 3:1 4:1 5:2 6:2 7:2 
0.8089358347260998 1:18 2:4 3:1 4:1 5:6 6:2 7:2 
0.198148873454399 1:19 2:1 3:1 4:1 5:6 6:1 7:1 
0.3209509694468111 1:19 2:5 3:3 4:3 5:13 6:12 7:1 
0.9911874550644846 1:5 2:2 3:1 4:1 5:7 6:7 7:1 
0.6394243631148149 1:7 2:6 3:5 4:2 5:10 6:6 7:1 
0.3909912681567253 1:25 2:1 3:1 4:1 5:12 6:2 7:2 
0.1180318375661951 1:20 2:3 3:1 4:1 5:9 6:2 7:2 
1 1:5 2:2 3:2 4:1 5:3 6:3 7:2 
1 1:10 2:2 3:1 4:1 5:4 6:1 7:1 
0.1050195887111807 1:24 2:2 3:1 4:0 5:3 6:3 7:2 
0.7178249407099026 1:4 2:2 3:1 4:0 5:15 6:8 7:2 
0.5768735950292026 1:14 2:4 3:1 4:1 5:19 6:3 7:2 
0.5809692125949647 1:17 2:1 3:1 4:1 5:5 6:2 7:1 
0.9935077719327877 1:18 2:0 3:0 4:0 5:0 6:0 7:0 
1 1:15 2:2 3:1 4:1 5:2 6:1 7:1 
0.05965032221996805 1:16 2:4 3:1 4:1 5:7 6:5 7:3 
-1 1:4 2:3 3:2 4:1 5:10 6:3 7:2 
-1 1:10 2:1 3:1 4:1 5:10 6:2 7:1 
-0.4890705181610355 1:3 2:3 3:2 4:1 5:4 6:1 7:1 
-1 1:1 2:5 3:1 4:1 5:10 6:3 7:3 
-0.9095201452400121 1:5 2:3 3:2 4:2 5:8 6:2 7:1 
-1 1:3 2:4 3:1 4:1 5:5 6:2 7:2 
-1 1:7 2:9 3:1 4:1 5:1 6:0 7:0 
-1 1:13 2:2 3:2 4:1 5:2 6:2 7:2 
-0.3082253983886101 1:3 2:3 3:1 4:1 5:2 6:1 7:1 
-1 1:21 2:2 3:2 4:1 5:12 6:4 7:4 
-1 1:4 2:1 3:1 4:0 5:3 6:1 7:1 
-0.1746137767410483 1:0 2:1 3:1 4:1 5:1 6:0 7:0 
-0.3033169067048326 1:0 2:0 3:0 4:0 5:2 6:1 7:0 
-1 1:10 2:3 3:1 4:1 5:4 6:1 7:1 
-1 1:4 2:3 3:1 4:1 5:3 6:2 7:2 
-1 1:3 2:0 3:0 4:0 5:2 6:1 7:1 
-1 1:5 2:1 3:1 4:1 5:1 6:1 7:1 
-0.3823375451952584 1:0 2:1 3:1 4:1 5:4 6:4 7:2 
-0.5417432213102462 1:0 2:2 3:2 4:2 5:2 6:1 7:1 
-0.7725802411154847 1:4 2:3 3:1 4:1 5:6 6:3 7:3 
-1 1:5 2:2 3:1 4:1 5:3 6:3 7:1 
-0.05489460937824837 1:0 2:1 3:1 4:0 5:4 6:3 7:1 
-1 1:3 2:1 3:1 4:1 5:2 6:2 7:2 
-0.08634156439391488 1:3 2:4 3:2 4:1 5:2 6:2 7:2 
-1 1:4 2:2 3:2 4:1 5:3 6:2 7:1 
-1 1:4 2:2 3:1 4:0 5:1 6:1 7:0 
-1 1:9 2:3 3:1 4:1 5:5 6:5 7:1 
-1 1:4 2:3 3:1 4:1 5:4 6:1 7:1 
-0.2734981611102574 1:0 2:0 3:0 4:0 5:2 6:2 7:1 
-1 1:11 2:3 3:1 4:1 5:1 6:1 7:0 
-1 1:3 2:1 3:1 4:1 5:4 6:2 7:2 
-1 1:14 2:3 3:1 4:1 5:2 6:1 7:1 
-1 1:18 2:1 3:1 4:0 5:1 6:1 7:1 
-0.8860053150919619 1:0 2:5 3:1 4:1 5:5 6:4 7:4 
-1 1:5 2:0 3:0 4:0 5:3 6:3 7:2 
-1 1:3 2:1 3:1 4:1 5:18 6:4 7:2 
-1 1:10 2:0 3:0 4:0 5:3 6:1 7:1 
-1 1:10 2:0 3:0 4:0 5:3 6:1 7:1 
-1 1:10 2:0 3:0 4:0 5:3 6:1 7:1 
-0.625257610866203 1:16 2:6 3:1 4:1 5:7 6:1 7:1 
-1 1:16 2:6 3:1 4:1 5:7 6:1 7:1 
-1 1:3 2:2 3:1 4:1 5:3 6:1 7:1 
-1 1:1 2:4 3:1 4:1 5:14 6:6 7:1 
-0.5074253621408911 1:2 2:0 3:0 4:0 5:0 6:0 7:0 
-1 1:17 2:2 3:1 4:1 5:5 6:2 7:1 
-1 1:7 2:4 3:4 4:2 5:3 6:2 7:2 
-1 1:3 2:3 3:1 4:1 5:3 6:1 7:1 
-0.9628164705312519 1:4 2:3 3:2 4:2 5:9 6:6 7:5 
-1 1:0 2:0 3:0 4:0 5:0 6:0 7:0 
-1 1:4 2:1 3:1 4:1 5:3 6:2 7:1 
-1 1:7 2:1 3:1 4:1 5:2 6:2 7:2 
-0.1153618484794262 1:0 2:3 3:3 4:1 5:3 6:2 7:1 
-1 1:0 2:0 3:0 4:0 5:1 6:0 7:0 
-1 1:9 2:12 3:4 4:1 5:10 6:3 7:2 
-1 1:3 2:1 3:0 4:0 5:3 6:1 7:1 
-0.7539567006907865 1:2 2:0 3:0 4:0 5:2 6:1 7:1 
-1 1:3 2:2 3:1 4:0 5:2 6:2 7:1 
-1 1:4 2:2 3:1 4:1 5:6 6:5 7:1 
-1 1:3 2:4 3:2 4:1 5:6 6:6 7:3 
-1 1:80 2:1 3:0 4:0 5:1 6:0 7:0 
-0.2817348767715152 1:3 2:1 3:1 4:1 5:1 6:1 7:1 
-1 1:6 2:2 3:2 4:2 5:14 6:11 7:1 
-1 1:2 2:1 3:0 4:0 5:3 6:1 7:1 
-0.4576676516765073 1:2 2:3 3:1 4:1 5:6 6:1 7:1 
-1 1:12 2:3 3:1 4:1 5:4 6:1 7:1 
-0.3116571272351358 1:3 2:2 3:1 4:0 5:1 6:1 7:0 
-0.1853765125587419 1:0 2:2 3:1 4:1 5:3 6:3 7:1 
-1 1:4 2:0 3:0 4:0 5:1 6:1 7:1 
-0.2163227677098901 1:0 2:1 3:0 4:0 5:0 6:0 7:0 
-1 1:3 2:1 3:1 4:1 5:3 6:1 7:1 
-1 1:8 2:3 3:1 4:1 5:5 6:4 7:1 
-1 1:0 2:1 3:1 4:0 5:6 6:1 7:1 
-0.8199322815875321 1:2 2:1 3:1 4:0 5:3 6:1 7:1 
-0.7841471972703732 1:0 2:2 3:1 4:0 5:0 6:0 7:0 
-0.419775833281668 1:0 2:2 3:2 4:1 5:2 6:2 7:2 
-1 1:13 2:2 3:2 4:1 5:2 6:2 7:2 
-0.2115854447536492 1:2 2:4 3:3 4:3 5:3 6:2 7:1 
-1 1:6 2:5 3:5 4:3 5:5 6:5 7:2 
-0.3327193648242356 1:11 2:5 3:2 4:1 5:1 6:1 7:1 
-0.9344142244742093 1:3 2:2 3:1 4:0 5:1 6:1 7:0 
-1 1:15 2:3 3:2 4:2 5:5 6:4 7:2 
-1 1:7 2:1 3:1 4:1 5:8 6:4 7:1 
-0.9494711608923808 1:1 2:5 3:5 4:1 5:7 6:1 7:1 
-0.2391305154523822 1:0 2:3 3:3 4:1 5:7 6:1 7:1 
-1 1:7 2:5 3:3 4:3 5:7 6:3 7:3 
-0.5803639473422096 1:0 2:1 3:0 4:0 5:3 6:2 7:2 
-1 1:4 2:16 3:3 4:3 5:19 6:4 7:2 
-1 1:9 2:18 3:4 4:3 5:23 6:3 7:2 
-1 1:0 2:2 3:2 4:1 5:10 6:7 7:6 
-1 1:2 2:6 3:2 4:1 5:1 6:1 7:0 
-0.9102124952552456 1:0 2:6 3:2 4:2 5:4 6:4 7:2 
-0.2707117542566455 1:0 2:3 3:1 4:1 5:5 6:4 7:1 
-0.2822549650178604 1:2 2:1 3:1 4:1 5:5 6:2 7:2 
-1 1:7 2:0 3:0 4:0 5:2 6:1 7:1 
-0.4238105131615082 1:0 2:1 3:1 4:1 5:6 6:4 7:3 
-0.3345167406264027 1:4 2:3 3:3 4:2 5:7 6:4 7:1 
-1 1:6 2:2 3:2 4:2 5:5 6:3 7:3 
-1 1:5 2:3 3:2 4:1 5:7 6:1 7:1 
-1 1:3 2:1 3:0 4:0 5:4 6:1 7:1 
-0.5362524162432357 1:2 2:1 3:0 4:0 5:2 6:1 7:1 
-1 1:7 2:3 3:2 4:2 5:1 6:1 7:1 
-0.7038598359751997 1:2 2:4 3:1 4:1 5:5 6:1 7:1 
-0.8714596306860531 1:13 2:6 3:2 4:1 5:1 6:1 7:1 
-0.6746777502906143 1:0 2:6 3:3 4:1 5:6 6:1 7:1 
-0.02697036068244853 1:2 2:4 3:3 4:2 5:7 6:1 7:1 
-1 1:7 2:2 3:1 4:1 5:3 6:1 7:1 
-0.8596309314346093 1:0 2:4 3:1 4:1 5:2 6:1 7:1 
-0.9972105395175411 1:3 2:1 3:1 4:1 5:1 6:1 7:1 
-0.2497233842137662 1:2 2:2 3:1 4:1 5:4 6:3 7:1 
-0.8003125122174973 1:4 2:4 3:2 4:2 5:4 6:4 7:1 
-1 1:1 2:16 3:2 4:1 5:16 6:4 7:1 
-0.7783336381611161 1:3 2:2 3:1 4:1 5:7 6:6 7:5 
-1 1:7 2:8 3:4 4:2 5:23 6:7 7:5 
-0.6009449399807225 1:3 2:5 3:2 4:2 5:2 6:1 7:1 
-1 1:4 2:2 3:1 4:1 5:3 6:3 7:1 
-1 1:9 2:29 3:9 4:4 5:6 6:4 7:3 
-1 1:15 2:5 3:5 4:4 5:15 6:5 7:4 
-1 1:0 2:9 3:1 4:1 5:11 6:2 7:1 
-0.6156272742268547 1:0 2:2 3:2 4:1 5:6 6:5 7:2 
-1 1:2 2:3 3:1 4:1 5:6 6:1 7:1 
